digraph Tree {
node [shape=box, style="filled, rounded", color="black", fontname=helvetica] ;
edge [fontname=helvetica] ;
0 [label="Age <= 0.5\nentropy = 0.98\nsamples = 12\nvalue = [5, 7]\nclass = Yes", fillcolor="#399de549"] ;
1 [label="entropy = 0.0\nsamples = 3\nvalue = [0, 3]\nclass = Yes", fillcolor="#399de5ff"] ;
0 -> 1 [labeldistance=2.5, labelangle=45, headlabel="True"] ;
2 [label="Gender <= 0.5\nentropy = 0.991\nsamples = 9\nvalue = [5, 4]\nclass = No", fillcolor="#e5813933"] ;
0 -> 2 [labeldistance=2.5, labelangle=-45, headlabel="False"] ;
3 [label="Income <= 1.5\nentropy = 0.811\nsamples = 4\nvalue = [1, 3]\nclass = Yes", fillcolor="#399de5aa"] ;
2 -> 3 ;
4 [label="Marital Status <= 0.5\nentropy = 1.0\nsamples = 2\nvalue = [1, 1]\nclass = No", fillcolor="#e5813900"] ;
3 -> 4 ;
5 [label="entropy = 0.0\nsamples = 1\nvalue = [0, 1]\nclass = Yes", fillcolor="#399de5ff"] ;
4 -> 5 ;
6 [label="entropy = 0.0\nsamples = 1\nvalue = [1, 0]\nclass = No", fillcolor="#e58139ff"] ;
4 -> 6 ;
7 [label="entropy = 0.0\nsamples = 2\nvalue = [0, 2]\nclass = Yes", fillcolor="#399de5ff"] ;
3 -> 7 ;
8 [label="Age <= 1.5\nentropy = 0.722\nsamples = 5\nvalue = [4, 1]\nclass = No", fillcolor="#e58139bf"] ;
2 -> 8 ;
9 [label="entropy = 0.0\nsamples = 3\nvalue = [3, 0]\nclass = No", fillcolor="#e58139ff"] ;
8 -> 9 ;
10 [label="Marital Status <= 0.5\nentropy = 1.0\nsamples = 2\nvalue = [1, 1]\nclass = No", fillcolor="#e5813900"] ;
8 -> 10 ;
11 [label="entropy = 0.0\nsamples = 1\nvalue = [0, 1]\nclass = Yes", fillcolor="#399de5ff"] ;
10 -> 11 ;
12 [label="entropy = 0.0\nsamples = 1\nvalue = [1, 0]\nclass = No", fillcolor="#e58139ff"] ;
10 -> 12 ;
}